<Nnet>
<Splice> 400 400
[ 0 ]
<AddShift> 400 400 
<LearnRateCoef> 0  [ -9.691129 -10.763 -10.94515 -10.98044 -11.99162 -11.83017 -12.70112 -12.82666 -12.83608 -13.55298 -13.00348 -13.23795 -13.35544 -13.21536 -13.4691 -13.55998 -13.85674 -13.97611 -14.22833 -14.38203 -14.41269 -14.34775 -14.32522 -14.29348 -14.35852 -14.45059 -14.51331 -14.55463 -14.57082 -14.56788 -14.56835 -14.56932 -14.65353 -14.6712 -14.65218 -14.71098 -14.72954 -14.75021 -14.94525 -14.75368 -14.72941 -14.87363 -14.75199 -14.76014 -14.94372 -14.75375 -15.06547 -14.86637 -15.10625 -15.05226 -15.11742 -15.18173 -15.07166 -15.06678 -15.06643 -15.03841 -15.00566 -15.00342 -15.02689 -15.05413 -15.06431 -15.05723 -15.06575 -15.09603 -15.16661 -15.15837 -15.1715 -15.25104 -15.19182 -15.24419 -15.22893 -15.27065 -15.25308 -15.24534 -15.16575 -15.08731 -15.00948 -14.88142 -14.68509 -14.42487 -9.691129 -10.763 -10.94515 -10.98044 -11.99162 -11.83017 -12.70112 -12.82666 -12.83608 -13.55298 -13.00348 -13.23795 -13.35544 -13.21536 -13.4691 -13.55998 -13.85674 -13.97611 -14.22833 -14.38203 -14.41269 -14.34775 -14.32522 -14.29348 -14.35852 -14.45059 -14.51331 -14.55463 -14.57082 -14.56788 -14.56835 -14.56932 -14.65353 -14.6712 -14.65218 -14.71098 -14.72954 -14.75021 -14.94525 -14.75368 -14.72941 -14.87363 -14.75199 -14.76014 -14.94372 -14.75375 -15.06547 -14.86637 -15.10625 -15.05226 -15.11742 -15.18173 -15.07166 -15.06678 -15.06643 -15.03841 -15.00566 -15.00342 -15.02689 -15.05413 -15.06431 -15.05723 -15.06575 -15.09603 -15.16661 -15.15837 -15.1715 -15.25104 -15.19182 -15.24419 -15.22893 -15.27065 -15.25308 -15.24534 -15.16575 -15.08731 -15.00948 -14.88142 -14.68509 -14.42487 -9.691129 -10.763 -10.94515 -10.98044 -11.99162 -11.83017 -12.70112 -12.82666 -12.83608 -13.55298 -13.00348 -13.23795 -13.35544 -13.21536 -13.4691 -13.55998 -13.85674 -13.97611 -14.22833 -14.38203 -14.41269 -14.34775 -14.32522 -14.29348 -14.35852 -14.45059 -14.51331 -14.55463 -14.57082 -14.56788 -14.56835 -14.56932 -14.65353 -14.6712 -14.65218 -14.71098 -14.72954 -14.75021 -14.94525 -14.75368 -14.72941 -14.87363 -14.75199 -14.76014 -14.94372 -14.75375 -15.06547 -14.86637 -15.10625 -15.05226 -15.11742 -15.18173 -15.07166 -15.06678 -15.06643 -15.03841 -15.00566 -15.00342 -15.02689 -15.05413 -15.06431 -15.05723 -15.06575 -15.09603 -15.16661 -15.15837 -15.1715 -15.25104 -15.19182 -15.24419 -15.22893 -15.27065 -15.25308 -15.24534 -15.16575 -15.08731 -15.00948 -14.88142 -14.68509 -14.42487 -9.691129 -10.763 -10.94515 -10.98044 -11.99162 -11.83017 -12.70112 -12.82666 -12.83608 -13.55298 -13.00348 -13.23795 -13.35544 -13.21536 -13.4691 -13.55998 -13.85674 -13.97611 -14.22833 -14.38203 -14.41269 -14.34775 -14.32522 -14.29348 -14.35852 -14.45059 -14.51331 -14.55463 -14.57082 -14.56788 -14.56835 -14.56932 -14.65353 -14.6712 -14.65218 -14.71098 -14.72954 -14.75021 -14.94525 -14.75368 -14.72941 -14.87363 -14.75199 -14.76014 -14.94372 -14.75375 -15.06547 -14.86637 -15.10625 -15.05226 -15.11742 -15.18173 -15.07166 -15.06678 -15.06643 -15.03841 -15.00566 -15.00342 -15.02689 -15.05413 -15.06431 -15.05723 -15.06575 -15.09603 -15.16661 -15.15837 -15.1715 -15.25104 -15.19182 -15.24419 -15.22893 -15.27065 -15.25308 -15.24534 -15.16575 -15.08731 -15.00948 -14.88142 -14.68509 -14.42487 -9.691129 -10.763 -10.94515 -10.98044 -11.99162 -11.83017 -12.70112 -12.82666 -12.83608 -13.55298 -13.00348 -13.23795 -13.35544 -13.21536 -13.4691 -13.55998 -13.85674 -13.97611 -14.22833 -14.38203 -14.41269 -14.34775 -14.32522 -14.29348 -14.35852 -14.45059 -14.51331 -14.55463 -14.57082 -14.56788 -14.56835 -14.56932 -14.65353 -14.6712 -14.65218 -14.71098 -14.72954 -14.75021 -14.94525 -14.75368 -14.72941 -14.87363 -14.75199 -14.76014 -14.94372 -14.75375 -15.06547 -14.86637 -15.10625 -15.05226 -15.11742 -15.18173 -15.07166 -15.06678 -15.06643 -15.03841 -15.00566 -15.00342 -15.02689 -15.05413 -15.06431 -15.05723 -15.06575 -15.09603 -15.16661 -15.15837 -15.1715 -15.25104 -15.19182 -15.24419 -15.22893 -15.27065 -15.25308 -15.24534 -15.16575 -15.08731 -15.00948 -14.88142 -14.68509 -14.42487 ]
<Rescale> 400 400 
<LearnRateCoef> 0  [ 0.2137627 0.2137628 0.2173729 0.2173729 0.2228124 0.2260896 0.2212641 0.2165843 0.2188998 0.2149787 0.2180397 0.2224551 0.2225476 0.2253027 0.2282165 0.2268776 0.222167 0.2197341 0.2216974 0.2215169 0.2215609 0.2216732 0.2213781 0.2233161 0.2258667 0.2266333 0.2267697 0.226748 0.2276958 0.2299295 0.2314022 0.2317432 0.2321183 0.2327727 0.2332406 0.2339005 0.2343455 0.233982 0.2343269 0.235424 0.2378277 0.2405869 0.2408815 0.2408564 0.2424736 0.2426349 0.2441719 0.2447846 0.2462915 0.246205 0.2466515 0.248947 0.2515519 0.2533814 0.2547231 0.2560416 0.2581259 0.2598467 0.2603526 0.2607505 0.2612535 0.2616201 0.2617275 0.2622622 0.2634197 0.2648728 0.2657358 0.2667865 0.2671716 0.2670055 0.2678132 0.2690924 0.2704023 0.2721862 0.2747888 0.2764453 0.2772324 0.2781309 0.2818844 0.2868206 0.2137627 0.2137628 0.2173729 0.2173729 0.2228124 0.2260896 0.2212641 0.2165843 0.2188998 0.2149787 0.2180397 0.2224551 0.2225476 0.2253027 0.2282165 0.2268776 0.222167 0.2197341 0.2216974 0.2215169 0.2215609 0.2216732 0.2213781 0.2233161 0.2258667 0.2266333 0.2267697 0.226748 0.2276958 0.2299295 0.2314022 0.2317432 0.2321183 0.2327727 0.2332406 0.2339005 0.2343455 0.233982 0.2343269 0.235424 0.2378277 0.2405869 0.2408815 0.2408564 0.2424736 0.2426349 0.2441719 0.2447846 0.2462915 0.246205 0.2466515 0.248947 0.2515519 0.2533814 0.2547231 0.2560416 0.2581259 0.2598467 0.2603526 0.2607505 0.2612535 0.2616201 0.2617275 0.2622622 0.2634197 0.2648728 0.2657358 0.2667865 0.2671716 0.2670055 0.2678132 0.2690924 0.2704023 0.2721862 0.2747888 0.2764453 0.2772324 0.2781309 0.2818844 0.2868206 0.2137627 0.2137628 0.2173729 0.2173729 0.2228124 0.2260896 0.2212641 0.2165843 0.2188998 0.2149787 0.2180397 0.2224551 0.2225476 0.2253027 0.2282165 0.2268776 0.222167 0.2197341 0.2216974 0.2215169 0.2215609 0.2216732 0.2213781 0.2233161 0.2258667 0.2266333 0.2267697 0.226748 0.2276958 0.2299295 0.2314022 0.2317432 0.2321183 0.2327727 0.2332406 0.2339005 0.2343455 0.233982 0.2343269 0.235424 0.2378277 0.2405869 0.2408815 0.2408564 0.2424736 0.2426349 0.2441719 0.2447846 0.2462915 0.246205 0.2466515 0.248947 0.2515519 0.2533814 0.2547231 0.2560416 0.2581259 0.2598467 0.2603526 0.2607505 0.2612535 0.2616201 0.2617275 0.2622622 0.2634197 0.2648728 0.2657358 0.2667865 0.2671716 0.2670055 0.2678132 0.2690924 0.2704023 0.2721862 0.2747888 0.2764453 0.2772324 0.2781309 0.2818844 0.2868206 0.2137627 0.2137628 0.2173729 0.2173729 0.2228124 0.2260896 0.2212641 0.2165843 0.2188998 0.2149787 0.2180397 0.2224551 0.2225476 0.2253027 0.2282165 0.2268776 0.222167 0.2197341 0.2216974 0.2215169 0.2215609 0.2216732 0.2213781 0.2233161 0.2258667 0.2266333 0.2267697 0.226748 0.2276958 0.2299295 0.2314022 0.2317432 0.2321183 0.2327727 0.2332406 0.2339005 0.2343455 0.233982 0.2343269 0.235424 0.2378277 0.2405869 0.2408815 0.2408564 0.2424736 0.2426349 0.2441719 0.2447846 0.2462915 0.246205 0.2466515 0.248947 0.2515519 0.2533814 0.2547231 0.2560416 0.2581259 0.2598467 0.2603526 0.2607505 0.2612535 0.2616201 0.2617275 0.2622622 0.2634197 0.2648728 0.2657358 0.2667865 0.2671716 0.2670055 0.2678132 0.2690924 0.2704023 0.2721862 0.2747888 0.2764453 0.2772324 0.2781309 0.2818844 0.2868206 0.2137627 0.2137628 0.2173729 0.2173729 0.2228124 0.2260896 0.2212641 0.2165843 0.2188998 0.2149787 0.2180397 0.2224551 0.2225476 0.2253027 0.2282165 0.2268776 0.222167 0.2197341 0.2216974 0.2215169 0.2215609 0.2216732 0.2213781 0.2233161 0.2258667 0.2266333 0.2267697 0.226748 0.2276958 0.2299295 0.2314022 0.2317432 0.2321183 0.2327727 0.2332406 0.2339005 0.2343455 0.233982 0.2343269 0.235424 0.2378277 0.2405869 0.2408815 0.2408564 0.2424736 0.2426349 0.2441719 0.2447846 0.2462915 0.246205 0.2466515 0.248947 0.2515519 0.2533814 0.2547231 0.2560416 0.2581259 0.2598467 0.2603526 0.2607505 0.2612535 0.2616201 0.2617275 0.2622622 0.2634197 0.2648728 0.2657358 0.2667865 0.2671716 0.2670055 0.2678132 0.2690924 0.2704023 0.2721862 0.2747888 0.2764453 0.2772324 0.2781309 0.2818844 0.2868206 ]
</Nnet>
